<?xml version="1.0"?>
<opencv_storage>
<cascade>
  <stageType>BOOST</stageType>
  <featureType>HAAR</featureType>
  <height>40</height>
  <width>40</width>
  <stageParams>
    <boostType>GAB</boostType>
    <minHitRate>9.9500000476837158e-01</minHitRate>
    <maxFalseAlarm>3.0000001192092896e-01</maxFalseAlarm>
    <weightTrimRate>9.4999998807907104e-01</weightTrimRate>
    <maxDepth>1</maxDepth>
    <maxWeakCount>100</maxWeakCount></stageParams>
  <featureParams>
    <maxCatCount>0</maxCatCount>
    <featSize>1</featSize>
    <mode>BASIC</mode></featureParams>
  <stageNum>9</stageNum>
  <stages>
    <!-- stage 0 -->
    <_>
      <maxWeakCount>6</maxWeakCount>
      <stageThreshold>-2.5398192405700684e+00</stageThreshold>
      <weakClassifiers>
        <_>
          <internalNodes>
            0 -1 34 -2.9569968581199646e-02</internalNodes>
          <leafValues>
            1.0256410390138626e-01 -9.2296385765075684e-01</leafValues></_>
        <_>
          <internalNodes>
            0 -1 8 -7.3254041373729706e-02</internalNodes>
          <leafValues>
            2.0311728119850159e-01 -8.4976387023925781e-01</leafValues></_>
        <_>
          <internalNodes>
            0 -1 80 8.9903930202126503e-03</internalNodes>
          <leafValues>
            -8.7126821279525757e-01 2.9218327999114990e-01</leafValues></_>
        <_>
          <internalNodes>
            0 -1 3 -5.6398820132017136e-02</internalNodes>
          <leafValues>
            2.2770459949970245e-01 -9.7321903705596924e-01</leafValues></_>
        <_>
          <internalNodes>
            0 -1 6 -1.2678448110818863e-02</internalNodes>
          <leafValues>
            3.5666370391845703e-01 -7.4919700622558594e-01</leafValues></_>
        <_>
          <internalNodes>
            0 -1 30 1.4933029888197780e-04</internalNodes>
          <leafValues>
            -4.8019161820411682e-01 4.8440811038017273e-01</leafValues></_></weakClassifiers></_>
    <!-- stage 1 -->
    <_>
      <maxWeakCount>8</maxWeakCount>
      <stageThreshold>-1.6841676235198975e+00</stageThreshold>
      <weakClassifiers>
        <_>
          <internalNodes>
            0 -1 13 1.7584744840860367e-02</internalNodes>
          <leafValues>
            -8.9494717121124268e-01 1.2500000000000000e-01</leafValues></_>
        <_>
          <internalNodes>
            0 -1 74 8.1779230386018753e-03</internalNodes>
          <leafValues>
            -7.0713084936141968e-01 3.9972287416458130e-01</leafValues></_>
        <_>
          <internalNodes>
            0 -1 81 -8.0967899411916733e-03</internalNodes>
          <leafValues>
            4.4136413931846619e-01 -5.9412759542465210e-01</leafValues></_>
        <_>
          <internalNodes>
            0 -1 2 -1.9566792994737625e-02</internalNodes>
          <leafValues>
            3.5199853777885437e-01 -7.2552752494812012e-01</leafValues></_>
        <_>
          <internalNodes>
            0 -1 51 -2.8909664601087570e-02</internalNodes>
          <leafValues>
            2.0643533766269684e-01 -9.4989955425262451e-01</leafValues></_>
        <_>
          <internalNodes>
            0 -1 85 1.3015826698392630e-03</internalNodes>
          <leafValues>
            -3.6050641536712646e-01 6.4892566204071045e-01</leafValues></_>
        <_>
          <internalNodes>
            0 -1 53 -9.2157855629920959e-02</internalNodes>
          <leafValues>
            -8.5090774297714233e-01 2.5628688931465149e-01</leafValues></_>
        <_>
          <internalNodes>
            0 -1 86 -4.6558432281017303e-02</internalNodes>
          <leafValues>
            2.1316504478454590e-01 -8.7390923500061035e-01</leafValues></_></weakClassifiers></_>
    <!-- stage 2 -->
    <_>
      <maxWeakCount>9</maxWeakCount>
      <stageThreshold>-1.9495997428894043e+00</stageThreshold>
      <weakClassifiers>
        <_>
          <internalNodes>
            0 -1 60 4.0183268487453461e-02</internalNodes>
          <leafValues>
            -9.3400549888610840e-01 -8.1081077456474304e-02</leafValues></_>
        <_>
          <internalNodes>
            0 -1 14 2.0037461072206497e-02</internalNodes>
          <leafValues>
            -6.9221860170364380e-01 4.0050923824310303e-01</leafValues></_>
        <_>
          <internalNodes>
            0 -1 22 -1.0688919574022293e-02</internalNodes>
          <leafValues>
            5.1260900497436523e-01 -4.1879603266716003e-01</leafValues></_>
        <_>
          <internalNodes>
            0 -1 11 -5.1444871351122856e-03</internalNodes>
          <leafValues>
            2.6363369822502136e-01 -7.7262461185455322e-01</leafValues></_>
        <_>
          <internalNodes>
            0 -1 83 -2.9063622932881117e-03</internalNodes>
          <leafValues>
            4.7856155037879944e-01 -4.1868475079536438e-01</leafValues></_>
        <_>
          <internalNodes>
            0 -1 52 -8.1474063917994499e-03</internalNodes>
          <leafValues>
            2.6574555039405823e-01 -8.4953922033309937e-01</leafValues></_>
        <_>
          <internalNodes>
            0 -1 17 -1.2156076263636351e-04</internalNodes>
          <leafValues>
            3.6517655849456787e-01 -5.8515799045562744e-01</leafValues></_>
        <_>
          <internalNodes>
            0 -1 71 -3.7283159326761961e-03</internalNodes>
          <leafValues>
            4.7899800539016724e-01 -4.4549509882926941e-01</leafValues></_>
        <_>
          <internalNodes>
            0 -1 4 -3.1679055094718933e-01</internalNodes>
          <leafValues>
            -9.6595203876495361e-01 2.0405647158622742e-01</leafValues></_></weakClassifiers></_>
    <!-- stage 3 -->
    <_>
      <maxWeakCount>9</maxWeakCount>
      <stageThreshold>-1.5290008783340454e+00</stageThreshold>
      <weakClassifiers>
        <_>
          <internalNodes>
            0 -1 92 3.1085565686225891e-02</internalNodes>
          <leafValues>
            -8.5870754718780518e-01 2.6618704199790955e-01</leafValues></_>
        <_>
          <internalNodes>
            0 -1 59 4.3233364820480347e-02</internalNodes>
          <leafValues>
            -6.8450278043746948e-01 2.3087275028228760e-01</leafValues></_>
        <_>
          <internalNodes>
            0 -1 20 -3.4915119409561157e-02</internalNodes>
          <leafValues>
            2.1482020616531372e-01 -7.7198189496994019e-01</leafValues></_>
        <_>
          <internalNodes>
            0 -1 15 -3.1862802803516388e-02</internalNodes>
          <leafValues>
            -9.3212860822677612e-01 1.6403019428253174e-01</leafValues></_>
        <_>
          <internalNodes>
            0 -1 36 1.9974816590547562e-02</internalNodes>
          <leafValues>
            2.3934963345527649e-01 -8.7180727720260620e-01</leafValues></_>
        <_>
          <internalNodes>
            0 -1 64 1.9633289426565170e-02</internalNodes>
          <leafValues>
            1.6610613465309143e-01 -8.9082813262939453e-01</leafValues></_>
        <_>
          <internalNodes>
            0 -1 46 -2.7453759685158730e-02</internalNodes>
          <leafValues>
            -9.3144434690475464e-01 1.5430667996406555e-01</leafValues></_>
        <_>
          <internalNodes>
            0 -1 1 -4.1342917829751968e-02</internalNodes>
          <leafValues>
            -9.0979611873626709e-01 1.0456011444330215e-01</leafValues></_>
        <_>
          <internalNodes>
            0 -1 63 -1.0428208112716675e-01</internalNodes>
          <leafValues>
            1.5361994504928589e-01 -8.0426210165023804e-01</leafValues></_></weakClassifiers></_>
    <!-- stage 4 -->
    <_>
      <maxWeakCount>10</maxWeakCount>
      <stageThreshold>-2.1159138679504395e+00</stageThreshold>
      <weakClassifiers>
        <_>
          <internalNodes>
            0 -1 25 3.9240904152393341e-02</internalNodes>
          <leafValues>
            -8.5550707578659058e-01 3.1707316637039185e-01</leafValues></_>
        <_>
          <internalNodes>
            0 -1 70 -4.6949801035225391e-03</internalNodes>
          <leafValues>
            -8.1059604883193970e-01 -1.9925104454159737e-02</leafValues></_>
        <_>
          <internalNodes>
            0 -1 37 -1.8916854634881020e-02</internalNodes>
          <leafValues>
            2.6521435379981995e-01 -5.2580380439758301e-01</leafValues></_>
        <_>
          <internalNodes>
            0 -1 55 9.5165688544511795e-03</internalNodes>
          <leafValues>
            1.8277344107627869e-01 -8.2843673229217529e-01</leafValues></_>
        <_>
          <internalNodes>
            0 -1 28 5.2866102196276188e-03</internalNodes>
          <leafValues>
            1.8793326616287231e-01 -8.3262944221496582e-01</leafValues></_>
        <_>
          <internalNodes>
            0 -1 50 -7.8645244240760803e-02</internalNodes>
          <leafValues>
            -8.6676591634750366e-01 1.6124850511550903e-01</leafValues></_>
        <_>
          <internalNodes>
            0 -1 19 -4.0791694074869156e-02</internalNodes>
          <leafValues>
            -8.6750298738479614e-01 1.2539719045162201e-01</leafValues></_>
        <_>
          <internalNodes>
            0 -1 7 -5.8520160615444183e-02</internalNodes>
          <leafValues>
            1.5096502006053925e-01 -8.2404881715774536e-01</leafValues></_>
        <_>
          <internalNodes>
            0 -1 24 -8.9185893535614014e-02</internalNodes>
          <leafValues>
            -9.1682773828506470e-01 1.1654810607433319e-01</leafValues></_>
        <_>
          <internalNodes>
            0 -1 48 -3.8006762042641640e-04</internalNodes>
          <leafValues>
            -7.6787632703781128e-01 1.4402760565280914e-01</leafValues></_></weakClassifiers></_>
    <!-- stage 5 -->
    <_>
      <maxWeakCount>13</maxWeakCount>
      <stageThreshold>-1.9156370162963867e+00</stageThreshold>
      <weakClassifiers>
        <_>
          <internalNodes>
            0 -1 29 -7.9123033210635185e-03</internalNodes>
          <leafValues>
            5.6962025165557861e-01 -8.4698277711868286e-01</leafValues></_>
        <_>
          <internalNodes>
            0 -1 45 -1.8446192145347595e-02</internalNodes>
          <leafValues>
            1.8272261321544647e-01 -6.8265956640243530e-01</leafValues></_>
        <_>
          <internalNodes>
            0 -1 33 -8.7741799652576447e-03</internalNodes>
          <leafValues>
            4.7888654470443726e-01 -3.9888194203376770e-01</leafValues></_>
        <_>
          <internalNodes>
            0 -1 87 -1.0615396313369274e-02</internalNodes>
          <leafValues>
            2.9406666755676270e-01 -4.8743560910224915e-01</leafValues></_>
        <_>
          <internalNodes>
            0 -1 72 -3.1529128551483154e-02</internalNodes>
          <leafValues>
            6.3231283426284790e-01 -2.2339046001434326e-01</leafValues></_>
        <_>
          <internalNodes>
            0 -1 42 -2.4472441524267197e-02</internalNodes>
          <leafValues>
            5.9836024045944214e-01 -2.5014570355415344e-01</leafValues></_>
        <_>
          <internalNodes>
            0 -1 44 -1.6035508364439011e-02</internalNodes>
          <leafValues>
            -8.2191872596740723e-01 2.1885088086128235e-01</leafValues></_>
        <_>
          <internalNodes>
            0 -1 47 1.1255683004856110e-01</internalNodes>
          <leafValues>
            1.1673977226018906e-01 -9.4047093391418457e-01</leafValues></_>
        <_>
          <internalNodes>
            0 -1 65 -2.2711506113409996e-02</internalNodes>
          <leafValues>
            6.2466084957122803e-01 -2.0884095132350922e-01</leafValues></_>
        <_>
          <internalNodes>
            0 -1 76 -3.4364681690931320e-02</internalNodes>
          <leafValues>
            4.0155011415481567e-01 -3.8918888568878174e-01</leafValues></_>
        <_>
          <internalNodes>
            0 -1 67 -8.4684431552886963e-02</internalNodes>
          <leafValues>
            -6.5598297119140625e-01 1.9112749397754669e-01</leafValues></_>
        <_>
          <internalNodes>
            0 -1 26 5.8212019503116608e-03</internalNodes>
          <leafValues>
            1.6995263099670410e-01 -6.7788332700729370e-01</leafValues></_>
        <_>
          <internalNodes>
            0 -1 90 -6.1420630663633347e-04</internalNodes>
          <leafValues>
            -8.9032816886901855e-01 1.0804995149374008e-01</leafValues></_></weakClassifiers></_>
    <!-- stage 6 -->
    <_>
      <maxWeakCount>13</maxWeakCount>
      <stageThreshold>-1.7618153095245361e+00</stageThreshold>
      <weakClassifiers>
        <_>
          <internalNodes>
            0 -1 38 -1.0575187392532825e-02</internalNodes>
          <leafValues>
            5.8730161190032959e-01 -8.4120172262191772e-01</leafValues></_>
        <_>
          <internalNodes>
            0 -1 77 -1.3741277158260345e-02</internalNodes>
          <leafValues>
            1.1358679085969925e-01 -6.9095832109451294e-01</leafValues></_>
        <_>
          <internalNodes>
            0 -1 39 -3.1271629035472870e-02</internalNodes>
          <leafValues>
            2.5090774893760681e-01 -6.1789542436599731e-01</leafValues></_>
        <_>
          <internalNodes>
            0 -1 78 -1.1177064850926399e-02</internalNodes>
          <leafValues>
            2.1539658308029175e-01 -5.7653087377548218e-01</leafValues></_>
        <_>
          <internalNodes>
            0 -1 56 -1.5921622980386019e-03</internalNodes>
          <leafValues>
            -7.3515856266021729e-01 1.9394779205322266e-01</leafValues></_>
        <_>
          <internalNodes>
            0 -1 18 3.6622367799282074e-02</internalNodes>
          <leafValues>
            1.0346274822950363e-01 -9.6907788515090942e-01</leafValues></_>
        <_>
          <internalNodes>
            0 -1 21 -2.7325946837663651e-02</internalNodes>
          <leafValues>
            4.3708026409149170e-01 -2.9432517290115356e-01</leafValues></_>
        <_>
          <internalNodes>
            0 -1 43 3.9491429924964905e-02</internalNodes>
          <leafValues>
            -2.1618863940238953e-01 6.1952096223831177e-01</leafValues></_>
        <_>
          <internalNodes>
            0 -1 79 -3.8634456694126129e-02</internalNodes>
          <leafValues>
            -8.0039727687835693e-01 1.6940556466579437e-01</leafValues></_>
        <_>
          <internalNodes>
            0 -1 62 4.3889261782169342e-02</internalNodes>
          <leafValues>
            1.1084084212779999e-01 -9.3725359439849854e-01</leafValues></_>
        <_>
          <internalNodes>
            0 -1 16 -1.1785952374339104e-02</internalNodes>
          <leafValues>
            3.9877611398696899e-01 -3.3161613345146179e-01</leafValues></_>
        <_>
          <internalNodes>
            0 -1 40 -6.6086262464523315e-02</internalNodes>
          <leafValues>
            -9.5704948902130127e-01 1.3644185662269592e-01</leafValues></_>
        <_>
          <internalNodes>
            0 -1 66 -7.3056556284427643e-03</internalNodes>
          <leafValues>
            4.3628746271133423e-01 -3.0495631694793701e-01</leafValues></_></weakClassifiers></_>
    <!-- stage 7 -->
    <_>
      <maxWeakCount>13</maxWeakCount>
      <stageThreshold>-1.7957066297531128e+00</stageThreshold>
      <weakClassifiers>
        <_>
          <internalNodes>
            0 -1 32 -7.6573677361011505e-03</internalNodes>
          <leafValues>
            5.0684928894042969e-01 -8.4346425533294678e-01</leafValues></_>
        <_>
          <internalNodes>
            0 -1 84 4.0323510766029358e-02</internalNodes>
          <leafValues>
            -7.1973276138305664e-01 5.1522254943847656e-02</leafValues></_>
        <_>
          <internalNodes>
            0 -1 0 -1.6221337020397186e-02</internalNodes>
          <leafValues>
            2.3526784777641296e-01 -5.6528127193450928e-01</leafValues></_>
        <_>
          <internalNodes>
            0 -1 27 -4.7052948502823710e-04</internalNodes>
          <leafValues>
            2.7200403809547424e-01 -5.1397287845611572e-01</leafValues></_>
        <_>
          <internalNodes>
            0 -1 89 1.0390907991677523e-03</internalNodes>
          <leafValues>
            1.8627983331680298e-01 -8.0643993616104126e-01</leafValues></_>
        <_>
          <internalNodes>
            0 -1 93 -7.1946857497096062e-03</internalNodes>
          <leafValues>
            4.0985009074211121e-01 -3.1757405400276184e-01</leafValues></_>
        <_>
          <internalNodes>
            0 -1 69 -1.4474492054432631e-03</internalNodes>
          <leafValues>
            2.8151968121528625e-01 -4.8501369357109070e-01</leafValues></_>
        <_>
          <internalNodes>
            0 -1 88 -2.7530819177627563e-02</internalNodes>
          <leafValues>
            5.2068793773651123e-01 -2.4590039253234863e-01</leafValues></_>
        <_>
          <internalNodes>
            0 -1 57 -1.4396785199642181e-01</internalNodes>
          <leafValues>
            -8.9977699518203735e-01 1.3563400506973267e-01</leafValues></_>
        <_>
          <internalNodes>
            0 -1 49 -9.1557346284389496e-02</internalNodes>
          <leafValues>
            -8.7165427207946777e-01 9.2915996909141541e-02</leafValues></_>
        <_>
          <internalNodes>
            0 -1 82 2.7982201427221298e-02</internalNodes>
          <leafValues>
            -2.2632077336311340e-01 5.6459313631057739e-01</leafValues></_>
        <_>
          <internalNodes>
            0 -1 61 1.5044942265376449e-03</internalNodes>
          <leafValues>
            2.4036811292171478e-01 -5.0445419549942017e-01</leafValues></_>
        <_>
          <internalNodes>
            0 -1 58 1.9786857068538666e-02</internalNodes>
          <leafValues>
            1.5099132061004639e-01 -7.3217749595642090e-01</leafValues></_></weakClassifiers></_>
    <!-- stage 8 -->
    <_>
      <maxWeakCount>14</maxWeakCount>
      <stageThreshold>-2.0122082233428955e+00</stageThreshold>
      <weakClassifiers>
        <_>
          <internalNodes>
            0 -1 35 -5.5027436465024948e-03</internalNodes>
          <leafValues>
            1.8000000715255737e-01 -8.4448659420013428e-01</leafValues></_>
        <_>
          <internalNodes>
            0 -1 73 3.4095440059900284e-02</internalNodes>
          <leafValues>
            -5.6289541721343994e-01 2.2057269513607025e-01</leafValues></_>
        <_>
          <internalNodes>
            0 -1 12 -4.8751674592494965e-02</internalNodes>
          <leafValues>
            2.2273869812488556e-01 -5.3775709867477417e-01</leafValues></_>
        <_>
          <internalNodes>
            0 -1 23 -2.8653314802795649e-04</internalNodes>
          <leafValues>
            -7.4638050794601440e-01 1.4786753058433533e-01</leafValues></_>
        <_>
          <internalNodes>
            0 -1 10 -1.0400561243295670e-01</internalNodes>
          <leafValues>
            -8.8474869728088379e-01 1.3436101377010345e-01</leafValues></_>
        <_>
          <internalNodes>
            0 -1 23 3.4864718327298760e-04</internalNodes>
          <leafValues>
            1.7229345440864563e-01 -6.2389647960662842e-01</leafValues></_>
        <_>
          <internalNodes>
            0 -1 31 -4.6059861779212952e-02</internalNodes>
          <leafValues>
            3.4063607454299927e-01 -3.2817637920379639e-01</leafValues></_>
        <_>
          <internalNodes>
            0 -1 5 -4.4791422784328461e-02</internalNodes>
          <leafValues>
            1.4922808110713959e-01 -7.8524076938629150e-01</leafValues></_>
        <_>
          <internalNodes>
            0 -1 9 -1.2792572379112244e-01</internalNodes>
          <leafValues>
            -9.4526839256286621e-01 9.1354154050350189e-02</leafValues></_>
        <_>
          <internalNodes>
            0 -1 41 2.7199182659387589e-02</internalNodes>
          <leafValues>
            -1.8552902340888977e-01 7.4738705158233643e-01</leafValues></_>
        <_>
          <internalNodes>
            0 -1 91 -7.0265112444758415e-03</internalNodes>
          <leafValues>
            2.6104083657264709e-01 -4.0725269913673401e-01</leafValues></_>
        <_>
          <internalNodes>
            0 -1 68 4.3796584010124207e-02</internalNodes>
          <leafValues>
            1.1509574949741364e-01 -8.9963293075561523e-01</leafValues></_>
        <_>
          <internalNodes>
            0 -1 54 -8.1776110455393791e-03</internalNodes>
          <leafValues>
            2.7548715472221375e-01 -4.0884989500045776e-01</leafValues></_>
        <_>
          <internalNodes>
            0 -1 75 -6.9686304777860641e-03</internalNodes>
          <leafValues>
            5.0207835435867310e-01 -2.1627344191074371e-01</leafValues></_></weakClassifiers></_></stages>
  <features>
    <_>
      <rects>
        <_>
          0 0 2 32 -1.</_>
        <_>
          0 16 2 16 2.</_></rects>
      <tilted>0</tilted></_>
    <_>
      <rects>
        <_>
          0 0 32 24 -1.</_>
        <_>
          0 0 16 12 2.</_>
        <_>
          16 12 16 12 2.</_></rects>
      <tilted>0</tilted></_>
    <_>
      <rects>
        <_>
          0 1 22 13 -1.</_>
        <_>
          11 1 11 13 2.</_></rects>
      <tilted>0</tilted></_>
    <_>
      <rects>
        <_>
          0 1 17 34 -1.</_>
        <_>
          0 18 17 17 2.</_></rects>
      <tilted>0</tilted></_>
    <_>
      <rects>
        <_>
          0 1 35 32 -1.</_>
        <_>
          0 17 35 16 2.</_></rects>
      <tilted>0</tilted></_>
    <_>
      <rects>
        <_>
          0 3 14 26 -1.</_>
        <_>
          0 16 14 13 2.</_></rects>
      <tilted>0</tilted></_>
    <_>
      <rects>
        <_>
          0 4 33 9 -1.</_>
        <_>
          11 4 11 9 3.</_></rects>
      <tilted>0</tilted></_>
    <_>
      <rects>
        <_>
          0 5 25 34 -1.</_>
        <_>
          0 22 25 17 2.</_></rects>
      <tilted>0</tilted></_>
    <_>
      <rects>
        <_>
          0 6 33 16 -1.</_>
        <_>
          0 14 33 8 2.</_></rects>
      <tilted>0</tilted></_>
    <_>
      <rects>
        <_>
          0 7 17 33 -1.</_>
        <_>
          0 18 17 11 3.</_></rects>
      <tilted>0</tilted></_>
    <_>
      <rects>
        <_>
          0 9 26 30 -1.</_>
        <_>
          13 9 13 30 2.</_></rects>
      <tilted>0</tilted></_>
    <_>
      <rects>
        <_>
          0 10 22 9 -1.</_>
        <_>
          11 10 11 9 2.</_></rects>
      <tilted>0</tilted></_>
    <_>
      <rects>
        <_>
          0 12 39 13 -1.</_>
        <_>
          13 12 13 13 3.</_></rects>
      <tilted>0</tilted></_>
    <_>
      <rects>
        <_>
          0 15 10 12 -1.</_>
        <_>
          0 15 5 6 2.</_>
        <_>
          5 21 5 6 2.</_></rects>
      <tilted>0</tilted></_>
    <_>
      <rects>
        <_>
          0 21 10 13 -1.</_>
        <_>
          5 21 5 13 2.</_></rects>
      <tilted>0</tilted></_>
    <_>
      <rects>
        <_>
          0 30 34 10 -1.</_>
        <_>
          17 30 17 10 2.</_></rects>
      <tilted>0</tilted></_>
    <_>
      <rects>
        <_>
          0 30 39 6 -1.</_>
        <_>
          0 32 39 2 3.</_></rects>
      <tilted>0</tilted></_>
    <_>
      <rects>
        <_>
          0 38 10 1 -1.</_>
        <_>
          5 38 5 1 2.</_></rects>
      <tilted>0</tilted></_>
    <_>
      <rects>
        <_>
          1 15 39 20 -1.</_>
        <_>
          1 25 39 10 2.</_></rects>
      <tilted>0</tilted></_>
    <_>
      <rects>
        <_>
          1 18 20 22 -1.</_>
        <_>
          1 29 20 11 2.</_></rects>
      <tilted>0</tilted></_>
    <_>
      <rects>
        <_>
          2 4 25 33 -1.</_>
        <_>
          2 15 25 11 3.</_></rects>
      <tilted>0</tilted></_>
    <_>
      <rects>
        <_>
          2 30 37 9 -1.</_>
        <_>
          2 33 37 3 3.</_></rects>
      <tilted>0</tilted></_>
    <_>
      <rects>
        <_>
          2 33 37 6 -1.</_>
        <_>
          2 35 37 2 3.</_></rects>
      <tilted>0</tilted></_>
    <_>
      <rects>
        <_>
          2 39 6 1 -1.</_>
        <_>
          4 39 2 1 3.</_></rects>
      <tilted>0</tilted></_>
    <_>
      <rects>
        <_>
          3 10 36 10 -1.</_>
        <_>
          15 10 12 10 3.</_></rects>
      <tilted>0</tilted></_>
    <_>
      <rects>
        <_>
          3 21 12 5 -1.</_>
        <_>
          7 21 4 5 3.</_></rects>
      <tilted>0</tilted></_>
    <_>
      <rects>
        <_>
          3 26 24 3 -1.</_>
        <_>
          15 26 12 3 2.</_></rects>
      <tilted>0</tilted></_>
    <_>
      <rects>
        <_>
          3 38 33 2 -1.</_>
        <_>
          14 38 11 2 3.</_></rects>
      <tilted>0</tilted></_>
    <_>
      <rects>
        <_>
          5 16 33 4 -1.</_>
        <_>
          16 16 11 4 3.</_></rects>
      <tilted>0</tilted></_>
    <_>
      <rects>
        <_>
          5 21 4 6 -1.</_>
        <_>
          5 21 2 3 2.</_>
        <_>
          7 24 2 3 2.</_></rects>
      <tilted>0</tilted></_>
    <_>
      <rects>
        <_>
          5 36 1 4 -1.</_>
        <_>
          5 38 1 2 2.</_></rects>
      <tilted>0</tilted></_>
    <_>
      <rects>
        <_>
          6 18 18 22 -1.</_>
        <_>
          12 18 6 22 3.</_></rects>
      <tilted>0</tilted></_>
    <_>
      <rects>
        <_>
          6 20 4 6 -1.</_>
        <_>
          6 20 2 3 2.</_>
        <_>
          8 23 2 3 2.</_></rects>
      <tilted>0</tilted></_>
    <_>
      <rects>
        <_>
          7 0 27 1 -1.</_>
        <_>
          16 0 9 1 3.</_></rects>
      <tilted>0</tilted></_>
    <_>
      <rects>
        <_>
          7 20 15 9 -1.</_>
        <_>
          12 20 5 9 3.</_></rects>
      <tilted>0</tilted></_>
    <_>
      <rects>
        <_>
          7 21 4 4 -1.</_>
        <_>
          7 21 2 2 2.</_>
        <_>
          9 23 2 2 2.</_></rects>
      <tilted>0</tilted></_>
    <_>
      <rects>
        <_>
          7 27 24 13 -1.</_>
        <_>
          19 27 12 13 2.</_></rects>
      <tilted>0</tilted></_>
    <_>
      <rects>
        <_>
          8 11 12 20 -1.</_>
        <_>
          12 11 4 20 3.</_></rects>
      <tilted>0</tilted></_>
    <_>
      <rects>
        <_>
          8 19 4 8 -1.</_>
        <_>
          8 19 2 4 2.</_>
        <_>
          10 23 2 4 2.</_></rects>
      <tilted>0</tilted></_>
    <_>
      <rects>
        <_>
          9 6 23 24 -1.</_>
        <_>
          9 14 23 8 3.</_></rects>
      <tilted>0</tilted></_>
    <_>
      <rects>
        <_>
          9 10 30 10 -1.</_>
        <_>
          19 10 10 10 3.</_></rects>
      <tilted>0</tilted></_>
    <_>
      <rects>
        <_>
          9 19 15 10 -1.</_>
        <_>
          14 19 5 10 3.</_></rects>
      <tilted>0</tilted></_>
    <_>
      <rects>
        <_>
          9 27 28 9 -1.</_>
        <_>
          9 30 28 3 3.</_></rects>
      <tilted>0</tilted></_>
    <_>
      <rects>
        <_>
          9 28 28 12 -1.</_>
        <_>
          9 32 28 4 3.</_></rects>
      <tilted>0</tilted></_>
    <_>
      <rects>
        <_>
          10 7 30 33 -1.</_>
        <_>
          25 7 15 33 2.</_></rects>
      <tilted>0</tilted></_>
    <_>
      <rects>
        <_>
          10 15 12 12 -1.</_>
        <_>
          14 15 4 12 3.</_></rects>
      <tilted>0</tilted></_>
    <_>
      <rects>
        <_>
          10 24 28 15 -1.</_>
        <_>
          24 24 14 15 2.</_></rects>
      <tilted>0</tilted></_>
    <_>
      <rects>
        <_>
          11 8 28 31 -1.</_>
        <_>
          25 8 14 31 2.</_></rects>
      <tilted>0</tilted></_>
    <_>
      <rects>
        <_>
          11 39 6 1 -1.</_>
        <_>
          13 39 2 1 3.</_></rects>
      <tilted>0</tilted></_>
    <_>
      <rects>
        <_>
          12 0 14 28 -1.</_>
        <_>
          12 14 14 14 2.</_></rects>
      <tilted>0</tilted></_>
    <_>
      <rects>
        <_>
          12 1 11 39 -1.</_>
        <_>
          12 14 11 13 3.</_></rects>
      <tilted>0</tilted></_>
    <_>
      <rects>
        <_>
          12 1 17 28 -1.</_>
        <_>
          12 15 17 14 2.</_></rects>
      <tilted>0</tilted></_>
    <_>
      <rects>
        <_>
          12 2 10 38 -1.</_>
        <_>
          12 21 10 19 2.</_></rects>
      <tilted>0</tilted></_>
    <_>
      <rects>
        <_>
          12 4 14 36 -1.</_>
        <_>
          12 22 14 18 2.</_></rects>
      <tilted>0</tilted></_>
    <_>
      <rects>
        <_>
          12 13 9 25 -1.</_>
        <_>
          15 13 3 25 3.</_></rects>
      <tilted>0</tilted></_>
    <_>
      <rects>
        <_>
          12 34 22 5 -1.</_>
        <_>
          23 34 11 5 2.</_></rects>
      <tilted>0</tilted></_>
    <_>
      <rects>
        <_>
          12 37 9 3 -1.</_>
        <_>
          15 37 3 3 3.</_></rects>
      <tilted>0</tilted></_>
    <_>
      <rects>
        <_>
          13 2 27 36 -1.</_>
        <_>
          22 2 9 36 3.</_></rects>
      <tilted>0</tilted></_>
    <_>
      <rects>
        <_>
          13 10 18 10 -1.</_>
        <_>
          22 10 9 10 2.</_></rects>
      <tilted>0</tilted></_>
    <_>
      <rects>
        <_>
          13 13 15 25 -1.</_>
        <_>
          18 13 5 25 3.</_></rects>
      <tilted>0</tilted></_>
    <_>
      <rects>
        <_>
          13 16 15 20 -1.</_>
        <_>
          18 16 5 20 3.</_></rects>
      <tilted>0</tilted></_>
    <_>
      <rects>
        <_>
          13 19 5 15 -1.</_>
        <_>
          13 24 5 5 3.</_></rects>
      <tilted>0</tilted></_>
    <_>
      <rects>
        <_>
          13 20 24 20 -1.</_>
        <_>
          13 30 24 10 2.</_></rects>
      <tilted>0</tilted></_>
    <_>
      <rects>
        <_>
          14 0 26 40 -1.</_>
        <_>
          14 20 26 20 2.</_></rects>
      <tilted>0</tilted></_>
    <_>
      <rects>
        <_>
          14 4 26 26 -1.</_>
        <_>
          14 4 13 13 2.</_>
        <_>
          27 17 13 13 2.</_></rects>
      <tilted>0</tilted></_>
    <_>
      <rects>
        <_>
          14 14 12 20 -1.</_>
        <_>
          18 14 4 20 3.</_></rects>
      <tilted>0</tilted></_>
    <_>
      <rects>
        <_>
          14 17 9 11 -1.</_>
        <_>
          17 17 3 11 3.</_></rects>
      <tilted>0</tilted></_>
    <_>
      <rects>
        <_>
          15 0 13 34 -1.</_>
        <_>
          15 17 13 17 2.</_></rects>
      <tilted>0</tilted></_>
    <_>
      <rects>
        <_>
          15 7 8 33 -1.</_>
        <_>
          19 7 4 33 2.</_></rects>
      <tilted>0</tilted></_>
    <_>
      <rects>
        <_>
          15 11 2 21 -1.</_>
        <_>
          15 18 2 7 3.</_></rects>
      <tilted>0</tilted></_>
    <_>
      <rects>
        <_>
          15 15 15 22 -1.</_>
        <_>
          15 26 15 11 2.</_></rects>
      <tilted>0</tilted></_>
    <_>
      <rects>
        <_>
          15 28 24 6 -1.</_>
        <_>
          15 30 24 2 3.</_></rects>
      <tilted>0</tilted></_>
    <_>
      <rects>
        <_>
          15 31 23 9 -1.</_>
        <_>
          15 34 23 3 3.</_></rects>
      <tilted>0</tilted></_>
    <_>
      <rects>
        <_>
          16 1 10 15 -1.</_>
        <_>
          16 6 10 5 3.</_></rects>
      <tilted>0</tilted></_>
    <_>
      <rects>
        <_>
          16 2 7 10 -1.</_>
        <_>
          16 7 7 5 2.</_></rects>
      <tilted>0</tilted></_>
    <_>
      <rects>
        <_>
          16 16 9 11 -1.</_>
        <_>
          19 16 3 11 3.</_></rects>
      <tilted>0</tilted></_>
    <_>
      <rects>
        <_>
          17 14 18 23 -1.</_>
        <_>
          23 14 6 23 3.</_></rects>
      <tilted>0</tilted></_>
    <_>
      <rects>
        <_>
          18 21 12 14 -1.</_>
        <_>
          24 21 6 14 2.</_></rects>
      <tilted>0</tilted></_>
    <_>
      <rects>
        <_>
          19 11 20 28 -1.</_>
        <_>
          19 11 10 14 2.</_>
        <_>
          29 25 10 14 2.</_></rects>
      <tilted>0</tilted></_>
    <_>
      <rects>
        <_>
          19 20 19 20 -1.</_>
        <_>
          19 30 19 10 2.</_></rects>
      <tilted>0</tilted></_>
    <_>
      <rects>
        <_>
          20 6 20 17 -1.</_>
        <_>
          30 6 10 17 2.</_></rects>
      <tilted>0</tilted></_>
    <_>
      <rects>
        <_>
          20 16 15 8 -1.</_>
        <_>
          25 16 5 8 3.</_></rects>
      <tilted>0</tilted></_>
    <_>
      <rects>
        <_>
          20 17 14 19 -1.</_>
        <_>
          27 17 7 19 2.</_></rects>
      <tilted>0</tilted></_>
    <_>
      <rects>
        <_>
          21 30 11 6 -1.</_>
        <_>
          21 32 11 2 3.</_></rects>
      <tilted>0</tilted></_>
    <_>
      <rects>
        <_>
          23 7 16 21 -1.</_>
        <_>
          31 7 8 21 2.</_></rects>
      <tilted>0</tilted></_>
    <_>
      <rects>
        <_>
          23 9 14 2 -1.</_>
        <_>
          23 10 14 1 2.</_></rects>
      <tilted>0</tilted></_>
    <_>
      <rects>
        <_>
          24 2 14 38 -1.</_>
        <_>
          24 21 14 19 2.</_></rects>
      <tilted>0</tilted></_>
    <_>
      <rects>
        <_>
          24 5 3 33 -1.</_>
        <_>
          24 16 3 11 3.</_></rects>
      <tilted>0</tilted></_>
    <_>
      <rects>
        <_>
          24 18 15 15 -1.</_>
        <_>
          29 18 5 15 3.</_></rects>
      <tilted>0</tilted></_>
    <_>
      <rects>
        <_>
          24 38 6 2 -1.</_>
        <_>
          27 38 3 2 2.</_></rects>
      <tilted>0</tilted></_>
    <_>
      <rects>
        <_>
          26 39 6 1 -1.</_>
        <_>
          28 39 2 1 3.</_></rects>
      <tilted>0</tilted></_>
    <_>
      <rects>
        <_>
          29 8 3 30 -1.</_>
        <_>
          29 18 3 10 3.</_></rects>
      <tilted>0</tilted></_>
    <_>
      <rects>
        <_>
          31 18 9 8 -1.</_>
        <_>
          34 18 3 8 3.</_></rects>
      <tilted>0</tilted></_>
    <_>
      <rects>
        <_>
          32 23 8 11 -1.</_>
        <_>
          36 23 4 11 2.</_></rects>
      <tilted>0</tilted></_></features></cascade>
</opencv_storage>
